network "GoldNet4" {
// written by aGrUM 2.1.1
}

variable Node1 {
   type discrete[2] {Value2, Value1};
}

variable Node2 {
   type discrete[2] {Value2, Value1};
}

variable Node3 {
   type discrete[2] {Value2, Value1};
}

variable Node4 {
   type discrete[2] {Value2, Value1};
}

variable Node5 {
   type discrete[2] {Value1, Value2};
}

variable Node6 {
   type discrete[2] {Value2, Value1};
}

variable Node7 {
   type discrete[2] {Value2, Value1};
}

variable Node8 {
   type discrete[2] {Value2, Value1};
}

probability (Node1 | Node7) {
   (Value2) 0.349442 0.650558;
   (Value1) 0.414508 0.585492;
}
probability (Node2 | Node7) {
   (Value2) 0.307311 0.692689;
   (Value1) 0.124352 0.875648;
}
probability (Node3 | Node4) {
   (Value2) 0.731298 0.268702;
   (Value1) 0.269565 0.730435;
}
probability (Node4) {
   table 0.655 0.345;
}
probability (Node5 | Node4) {
   (Value2) 0.931298 0.0687023;
   (Value1) 0.397101 0.602899;
}
probability (Node6 | Node1) {
   (Value2) 0.337017 0.662983;
   (Value1) 0.178683 0.821317;
}
probability (Node7 | Node8) {
   (Value2) 0.990958 0.00904159;
   (Value1) 0.579418 0.420582;
}
probability (Node8 | Node5) {
   (Value1) 0.583668 0.416332;
   (Value2) 0.462451 0.537549;
}

